{"ip":0,"fr":60,"v":"5.1.20","assets":[],"layers":[{"ty":4,"nm":"Vector 1","ip":0,"st":0,"ind":3,"hix":2,"ks":{"o":{"a":0,"k":100},"or":{"a":0,"k":[0,0,0]},"a":{"a":0,"k":[164,131,0]},"p":{"s":true,"x":{"a":0,"k":232},"y":{"a":0,"k":212}},"rx":{"a":0,"k":0},"ry":{"a":0,"k":0},"rz":{"a":0,"k":0},"s":{"a":0,"k":[100,100,100]}},"shapes":[{"ty":"gr","nm":"Vector 1 shape group","it":[{"ty":"sh","ks":{"a":0,"k":{"c":false,"v":[[21.3879,121.87],[18.1623,44.4548],[41.9652,49.6826],[77.6696,72.262],[189.899,16.4808],[192.902,7.19325],[183.893,14.6456],[165.763,41.8966],[138.122,125.151],[105.81,199.563],[84.5658,226.87],[59.5393,248.671],[40.13,253.453],[16.1602,255.734],[19.2746,202.844],[96.8009,167.696],[242.622,108.078],[326.266,11.3087],[319.647,2.79972],[275.935,16.8145],[231.165,59.3595],[203.135,104.63],[163.816,204.346],[160.535,242.331],[164.873,257.235],[203.58,253.008]],"i":[[0,0],[-30.057299999999998,16.9555],[-7.122,-4.855899999999998],[-14.9007,-3.4176000000000073],[-23.236999999999995,33.914100000000005],[3.1910000000000025,-0.6380999999999997],[1.6059999999999945,-1.8240999999999996],[4.870999999999981,-9.6903],[8.946999999999974,-27.451999999999998],[13.346999999999994,-23.595],[7.470700000000008,-8.691000000000003],[10.200400000000002,-5.211999999999989],[6.449999999999996,-1.163000000000011],[7.908100000000001,1.2650000000000148],[-9.71175,10.707999999999998],[-28.602000000000004,5.093999999999994],[-42.428000000000026,31.819999999999993],[-8.263000000000034,42.4514],[4.972000000000037,1.49839],[12.726999999999975,-9.051829999999999],[12.313000000000017,-16.7945],[8.631,-15.3947],[5.48599999999999,-34.741000000000014],[-0.12100000000000932,-12.732],[-4.936999999999983,-3.099000000000018],[-11.582999999999998,3.4070000000000107]],"o":[[-16.703,-20.22],[8.412100000000002,-4.745199999999997],[12.060499999999998,8.222999999999999],[43.248400000000004,9.919299999999993],[1.8389999999999986,-2.6839999999999993],[-3.1430000000000007,0.6287000000000003],[-7.175999999999988,8.1473],[-13.039999999999992,25.939200000000007],[-8.38900000000001,25.742000000000004],[-5.673000000000002,10.030000000000001],[-7.360699999999994,8.561999999999983],[-5.911899999999996,3.0200000000000102],[-7.770099999999999,1.4019999999999868],[-27.479799999999997,-4.39700000000002],[20.380699999999997,-22.471000000000004],[51.83309999999999,-9.22999999999999],[32.01799999999997,-24.01400000000001],[1.0779999999999745,-5.53926],[-16.218000000000018,-4.88787],[-16.915999999999997,12.030800000000003],[-10.435999999999979,14.234200000000001],[-17.018999999999977,30.35900000000001],[-1.98599999999999,12.576999999999998],[0.04800000000000182,5.027000000000015],[11.820999999999998,7.419999999999959],[0,0]]}}},{"ty":"st","o":{"a":0,"k":100},"c":{"a":0,"k":[0,0,0,1]},"lc":2,"lj":1,"ml":1,"w":{"a":0,"k":3},"d":[{"n":"d","v":{"a":0,"k":1500},"nm":"0"},{"n":"g","v":{"a":0,"k":1500},"nm":"1"},{"n":"o","v":{"a":1,"k":[{"t":0,"s":[1500],"e":[0],"i":{"x":[0.515],"y":[0.955]},"o":{"x":[0.455],"y":[0.03]}},{"t":60}]},"nm":"2"}]},{"ty":"fl","o":{"a":0,"k":0},"c":{"a":0,"k":[0,0,0,0]},"r":1},{"ty":"tr","o":{"a":0,"k":100},"a":{"a":0,"k":[0,0]},"s":{"a":0,"k":[100,100]},"p":{"a":0,"k":[0,0]},"r":{"a":0,"k":0}}]}],"op":300},{"ty":4,"nm":"Ellipse 1","ip":0,"st":0,"ind":2,"hix":3,"ks":{"o":{"a":1,"k":[{"t":0,"s":[0],"e":[0],"i":{"x":[0.515],"y":[0.955]},"o":{"x":[0.455],"y":[0.03]}},{"t":95,"s":[0],"e":[100],"i":{"x":[1],"y":[1]},"o":{"x":[0],"y":[0]}},{"t":119}]},"or":{"a":0,"k":[0,0,0]},"a":{"a":0,"k":[7,8.5,0]},"p":{"s":true,"x":{"a":0,"k":564.5},"y":{"a":0,"k":187}},"rx":{"a":0,"k":0},"ry":{"a":0,"k":0},"rz":{"a":0,"k":0},"s":{"a":0,"k":[85.7,70.6]}},"shapes":[{"ty":"gr","nm":"Ellipse 1 shape group","it":[{"ty":"el","p":{"a":0,"k":[7,8]},"s":{"a":0,"k":[14,17]}},{"ty":"st","o":{"a":0,"k":0},"w":{"a":0,"k":0},"c":{"a":0,"k":[0,0,0,0]},"lc":3,"lj":1,"ml":1},{"ty":"fl","o":{"a":0,"k":100},"r":1,"c":{"a":0,"k":[0,0,0,1]}},{"ty":"tr","o":{"a":0,"k":100},"a":{"a":0,"k":[0,0]},"s":{"a":0,"k":[100,100]},"p":{"a":0,"k":[0,0]},"r":{"a":0,"k":0}}]}],"op":300},{"ty":4,"nm":"Vector 2","ip":0,"st":0,"ind":1,"hix":1,"ks":{"o":{"a":0,"k":100},"or":{"a":0,"k":[0,0,0]},"a":{"a":0,"k":[314.5,160.5,0]},"p":{"s":true,"x":{"a":0,"k":583},"y":{"a":0,"k":200}},"rx":{"a":0,"k":0},"ry":{"a":0,"k":0},"rz":{"a":0,"k":-2.9220847551671985},"s":{"a":0,"k":[100,100]}},"shapes":[{"ty":"gr","nm":"Vector 2 shape group","it":[{"ty":"sh","ks":{"a":0,"k":{"c":false,"v":[[115.132,161.501],[54.9782,153.385],[4.49765,229.217],[16.6174,277.14],[84.4437,227.438],[113.02,163.67],[115.688,158.166],[105.459,185.185],[82.6647,243.671],[72.5463,280.253],[73.2135,293.54],[105.792,285.59],[145.877,234.832],[169.727,183.239],[174.175,152.94],[170.172,144.99],[162.611,158.166],[174.453,183.184],[203.863,182.183],[214.759,179.792],[213.647,199.862],[192.243,278.418],[195.579,290.483],[226.657,275.138],[265.685,229.105],[296.151,174.01],[294.261,168.173],[289.702,185.074],[276.248,218.431],[257.29,278.919],[263.572,288.592],[283.197,279.864],[323.392,254.679],[383.769,203.754],[412.401,176.29],[429.024,157.276],[413.902,150.605],[380.378,177.068],[383.547,196.86],[401.893,211.537],[411.344,243.56],[394.666,289.093],[361.976,314.166],[346.353,318.558],[339.738,318.614],[366.145,306.439],[467.718,218.653],[562.341,100.569],[585.08,40.8596],[569.124,1.60931],[562.341,3.99991],[538.824,27.0164],[504.856,92.1185],[469.553,184.073],[432.915,267.133],[416.459,302.491],[415.57,304.937],[424.576,285.59],[456.376,244.783],[488.511,218.209],[522.646,208.98],[532.153,228.327],[528.428,276.25],[533.876,300.712],[564.899,305.493],[627.499,264.575]],"i":[[0,0],[21.496899999999997,-11.346000000000004],[5.48485,-29.791000000000025],[-21.05341,-4.288999999999987],[-13.56620000000001,22.138000000000005],[-8.509999999999991,21.792],[0.3100000000000023,-2.0149999999999864],[3.3589999999999947,-8.193000000000012],[5.991200000000006,-20.078000000000003],[1.4993999999999943,-12.411000000000001],[-2.3160999999999916,-3.3079999999999927],[-5.197000000000003,3.8810000000000286],[-10.766999999999996,17.545000000000016],[-5.38300000000001,17.94399999999999],[0,9.835000000000008],[3.2390000000000043,1.1569999999999823],[0.3990000000000009,-2.8389999999999986],[-8.024000000000001,-5.89500000000001],[-8.900000000000006,2.3880000000000052],[-3.2299999999999898,-0.6049999999999898],[0.9230000000000018,-2.890999999999991],[1.0420000000000016,-27.614000000000004],[-5.546999999999997,0],[-8.727000000000004,7.763000000000034],[-11.611999999999995,15.870000000000005],[-1.4390000000000214,20.497000000000014],[2.3239999999999554,-6.974999999999994],[2.0289999999999964,-5.549000000000007],[4.524000000000001,-11.092000000000013],[0.5449999999999591,-20.986999999999966],[-8.170999999999992,2.0430000000000064],[-6.105000000000018,3.2130000000000223],[-12.658000000000015,9.563999999999993],[-19.339,17.693000000000012],[-9.343000000000018,9.342000000000013],[-3.723000000000013,7.179000000000002],[2.8489999999999895,-0.7609999999999957],[6.182999999999993,-12.604000000000013],[-5.682000000000016,-7.246000000000009],[-6.074999999999989,-5.086000000000013],[1.507000000000005,-13.662000000000006],[9.862000000000023,-13.221000000000004],[11.62700000000001,-6.939000000000021],[5.682000000000016,-0.4060000000000059],[-1.870999999999981,1.1690000000000396],[-8.671999999999969,3.853999999999985],[-30.80200000000002,32.26400000000001],[-26.668999999999983,43.71900000000001],[-2.90300000000002,21.771099999999997],[16.723999999999933,3.5703700000000005],[1.8980000000000246,-1.35101],[6.823000000000093,-8.556000000000001],[9.30600000000004,-22.476100000000002],[11.480000000000018,-30.77200000000002],[13.657999999999959,-27.11699999999999],[4.34499999999997,-11.947999999999979],[0.4460000000000264,0.7439999999999714],[-0.3790000000000191,0.6060000000000514],[-11.753999999999962,12.623000000000019],[-12.459000000000003,6.3489999999999895],[-11.543999999999983,-2.3559999999999945],[0.1150000000000091,-8.069999999999993],[0.07699999999999818,-16.154999999999973],[-5.65199999999993,-7.211000000000013],[-7.836999999999989,1.718999999999994],[-18.149,15.879999999999995]],"o":[[-18.88730000000001,-12.591000000000008],[-27.2806,14.397999999999996],[-2.7102500000000003,14.719999999999999],[31.0495,6.324999999999989],[12.272699999999986,-20.02799999999999],[0.7409999999999997,-1.8999999999999773],[-1.3769999999999953,8.954000000000008],[-7.931899999999999,19.347999999999985],[-3.5587000000000018,11.927000000000021],[-0.4322999999999979,3.5790000000000077],[5.92880000000001,8.46999999999997],[16.703999999999994,-12.47199999999998],[9.796999999999997,-15.96599999999998],[2.8170000000000073,-9.38900000000001],[0,-3.1529999999999916],[-4.900000000000006,-1.75],[-1.4329999999999927,10.191000000000003],[8.311999999999983,6.1059999999999945],[3.0149999999999864,-0.8089999999999975],[6.724000000000018,1.2609999999999957],[-8.281999999999982,25.951999999999998],[-0.15799999999998704,4.194999999999993],[12.187999999999988,0],[14.738,-13.11099999999999],[11.576999999999998,-15.822000000000003],[0.08699999999998909,-1.25],[-1.8550000000000182,5.562000000000012],[-4.117000000000019,11.254999999999995],[-7.76400000000001,19.034999999999997],[-0.17099999999999227,6.569000000000017],[6.814999999999998,-1.7029999999999745],[14.033000000000015,-7.385999999999967],[20.937999999999988,-15.818999999999988],[9.74799999999999,-8.917999999999978],[5.543999999999983,-5.543999999999983],[3.1890000000000214,-6.150000000000006],[-13.396999999999991,3.576999999999998],[-4.019999999999982,8.192999999999984],[4.958999999999946,6.324999999999989],[10.407000000000039,8.712999999999994],[-1.7969999999999686,16.297000000000025],[-8.231999999999971,11.033999999999992],[-4.932999999999993,2.944000000000017],[-2.1990000000000123,0.15699999999998226],[8.081000000000017,-5.050999999999988],[41.541,-18.463000000000022],[35.25399999999996,-36.92699999999999],[11.352999999999952,-18.611800000000002],[1.7019999999999982,-12.7665],[-2.521000000000072,-0.5381100000000001],[-8.947000000000003,6.36889],[-15.302999999999997,19.191599999999998],[-12.569999999999993,30.358500000000006],[-10.622000000000014,28.47],[-5.718000000000018,11.354000000000042],[-0.29599999999999227,0.8160000000000309],[-1.7579999999999814,-2.9290000000000305],[9.156000000000006,-14.641999999999996],[9.435000000000002,-10.131999999999977],[9.920999999999992,-5.056000000000012],[9.496000000000095,1.9380000000000166],[-0.2300000000000182,16.099999999999994],[-0.04100000000005366,8.660000000000025],[5.70799999999997,7.282000000000039],[24.510999999999967,-5.375],[0,0]]}}},{"ty":"st","o":{"a":0,"k":100},"c":{"a":0,"k":[0,0,0,1]},"lc":2,"lj":1,"ml":1,"w":{"a":0,"k":3},"d":[{"n":"d","v":{"a":0,"k":2900},"nm":"0"},{"n":"g","v":{"a":0,"k":2900},"nm":"1"},{"n":"o","v":{"a":1,"k":[{"t":0,"s":[2900],"e":[2900],"i":{"x":[1],"y":[1]},"o":{"x":[0],"y":[0]}},{"t":48,"s":[2900],"e":[0],"i":{"x":[0.45],"y":[0.94]},"o":{"x":[0.25],"y":[0.46]}},{"t":300}]},"nm":"2"}]},{"ty":"fl","o":{"a":0,"k":0},"c":{"a":0,"k":[0,0,0,0]},"r":1},{"ty":"tr","o":{"a":0,"k":100},"a":{"a":0,"k":[0,0]},"s":{"a":0,"k":[100,100]},"p":{"a":0,"k":[0,0]},"r":{"a":0,"k":0}}]}],"op":300}],"op":300,"w":1000,"h":400}